const bestBrain = {
    "levels": [
        {
            "inputs": [
                0.19918836245506444,
                0.019210053966140173,
                0,
                0,
                0,
                0.20223498947659602,
                0.5870464435202605,
                0.7079977398980744,
                0.7615811530036092
            ],
            "outputs": [
                1,
                1,
                0,
                0,
                1,
                1
            ],
            "biases": [
                -0.3788292053675343,
                -0.48186456603149525,
                0.06064593714211922,
                -0.2286503623792198,
                -0.32774971119774365,
                -0.23224100857461033,
                -0.012157690365483427,
                0.2203621706546785,
                -0.2016024256316316
            ],
            "weights": [
                [
                    0.15433246945060466,
                    0.3520257710801449,
                    -0.01869294245252181,
                    0.16653330245336007,
                    0.20565267665289744,
                    0.1338578118387009,
                    -0.019501146994508237,
                    -0.05249804545763092,
                    0.08614741167865998
                ],
                [
                    -0.16213409696014436,
                    -0.016947174847597026,
                    -0.027563317101390594,
                    -0.04327802034731579,
                    0.30701330850716424,
                    0.3760164664843499,
                    -0.13014550508620312,
                    -0.17422810215438775,
                    0.17581666340784413
                ],
                [
                    0.21656891183655655,
                    0.20443439992001924,
                    0.04457495765254771,
                    -0.04885812422848569,
                    -0.11244094829964554,
                    0.2721921916219571,
                    -0.12050408598314738,
                    -0.07747170299204374,
                    -0.013161536138105043
                ],
                [
                    -0.10663853166149473,
                    0.2718208852185091,
                    0.06320073425392947,
                    -0.040317385336705834,
                    0.09947667291305214,
                    -0.0775780062618712,
                    0.1348587108228696,
                    -0.06223140057320808,
                    0.11206827689268092
                ],
                [
                    -0.009709471427859523,
                    0.13760640392698004,
                    0.3424865576548893,
                    0.4061727782305851,
                    0.36053102550310995,
                    0.259538551842041,
                    -0.012955538951012202,
                    0.1205597090592531,
                    0.1888591425318163
                ],
                [
                    -0.2551575178996103,
                    0.2614821896802501,
                    0.42950527102865776,
                    0.33911049926974773,
                    0.2646891978264185,
                    0.14839373587805668,
                    -0.04108464739366896,
                    0.07732352828371779,
                    0.02315328598922852
                ],
                [
                    -0.07399608649476472,
                    0.4066787023177136,
                    0.24808250118744202,
                    -0.4294459816647781,
                    -0.22985839754258097,
                    0.2032388016481706,
                    -0.20451246266192089,
                    -0.0320868434876414,
                    0.05220990743302549
                ],
                [
                    0.22605457724262246,
                    -0.04316253744828495,
                    0.19476257867139107,
                    -0.08926122499626428,
                    -0.03664135108096874,
                    -0.1291568524064281,
                    -0.12177328196886647,
                    0.19959464337812496,
                    0.014094740945406893
                ],
                [
                    0.15662504737929625,
                    0.1769179802476986,
                    -0.45308093003432126,
                    -0.32083800352279473,
                    -0.21323154145562048,
                    0.4922497196509341,
                    -0.16223270951351518,
                    0.00049639196545155,
                    0.03753264774743754
                ]
            ]
        },
        {
            "inputs": [
                1,
                1,
                0,
                0,
                1,
                1
            ],
            "outputs": [
                1,
                0,
                0,
                0
            ],
            "biases": [
                0.06366381617374738,
                -0.008187240239458916,
                -0.23521984781628366,
                0.2230946028275673,
                0.007861421697512215,
                -0.12772143682317855
            ],
            "weights": [
                [
                    0.3765709646788631,
                    -0.3953387375013995,
                    0.09267088281153138,
                    0.0317640640612475,
                    -0.23552491136361492,
                    -0.15803286159819205
                ],
                [
                    0.283101826888473,
                    0.4021401609448495,
                    -0.14087373119618962,
                    -0.3335804366247024,
                    0.13282889491505864,
                    -0.18330951662972989
                ],
                [
                    0.39507818739756734,
                    0.2872537576679029,
                    -0.11037383727954322,
                    0.06768876208646281,
                    -0.16328915212460218,
                    0.11110372713993473
                ],
                [
                    -0.5823655780628718,
                    -0.058088701910833505,
                    0.07976887527929788,
                    -0.007808563473779603,
                    0.09012659877460491,
                    -0.08261637589985107
                ],
                [
                    0.1895607705014073,
                    0.23905918070601836,
                    -0.15147970276997594,
                    0.06156579796554476,
                    0.058858040310916265,
                    -0.06931132246540778
                ],
                [
                    0.28542701006086785,
                    -0.4592052668930378,
                    -0.09459058720328835,
                    -0.10833592664500036,
                    0.04776562161429669,
                    -0.027036475758518627
                ]
            ]
        }
    ]
}
