const bestBrain = {
    "levels": [
        {
            "inputs": [
                0.7071212153065465,
                0.6498893659297686,
                0.5245905877637999,
                0.1717148186005969,
                0,
                0,
                0,
                0.03828350989866758,
                0.23541485070619284
            ],
            "outputs": [
                0,
                0,
                0,
                1,
                0,
                1
            ],
            "biases": [
                0.1275467805483671,
                0.3065173024460903,
                0.15166528891295705,
                -0.07396919495866261,
                0.14069075742878906,
                0.1494134761638462,
                0.03405216760203151,
                -0.37079673511109845,
                0.04482987407545602
            ],
            "weights": [
                [
                    -0.40743543337501764,
                    0.18261009235336365,
                    -0.11447791460811836,
                    0.08952964712710032,
                    -0.061375640019902686,
                    -0.09461338083437533,
                    0.027400421040576495,
                    0.16800319280377166,
                    0.1448580188842515
                ],
                [
                    0.14254706980100337,
                    -0.1352082130339551,
                    0.11242360653791339,
                    0.07929052332871482,
                    -0.041285919838135295,
                    0.224744920437526,
                    -0.10309741661959555,
                    0.07207922812359567,
                    0.05379463685313071
                ],
                [
                    -0.09474317820069111,
                    -0.09590804053971555,
                    -0.06446044924203422,
                    -0.13248825532909994,
                    -0.12270811612287567,
                    0.03690438261861554,
                    0.0987782838206918,
                    0.10208361010160236,
                    -0.01725403467402921
                ],
                [
                    -0.023060157171724358,
                    -0.011225966893275374,
                    -0.23789621951492035,
                    -0.07911305970454575,
                    0.04153811448812264,
                    0.1963637908103617,
                    -0.21597876548659134,
                    -0.05306192550539405,
                    -0.010340172060869506
                ],
                [
                    -0.00719524479822895,
                    -0.07126927473295351,
                    -0.05262332951892019,
                    -0.043689239165195314,
                    -0.009304933599028689,
                    0.23326339215213004,
                    0.04266668928865227,
                    -0.21668939085196254,
                    -0.04034683092871726
                ],
                [
                    -0.03307813642624932,
                    -0.13811715994164012,
                    -0.0561796975706034,
                    0.00110079266026996,
                    0.25167307843991116,
                    -0.0376971370467861,
                    -0.18936337249304724,
                    -0.030331994346205454,
                    0.0921223684813339
                ],
                [
                    0.20742165175518096,
                    0.14372719338076545,
                    -0.397272342572611,
                    0.0011132771325219337,
                    -0.11226756985649816,
                    -0.16720091356312647,
                    -0.021103254766346544,
                    0.04722453058246828,
                    0.01347879975720169
                ],
                [
                    -0.13394337394221512,
                    0.2800944998203701,
                    0.06917865008572358,
                    0.1779037916921872,
                    0.34297687963041884,
                    0.014259358140624262,
                    -0.22876568954956542,
                    0.04114385109217325,
                    -0.11293987636416888
                ],
                [
                    -0.16630630027970952,
                    -0.1496206852066201,
                    0.1359751845986356,
                    -0.22039575692578417,
                    -0.3592874392292706,
                    0.09064304778405217,
                    0.18120280346567724,
                    -0.16104480039281074,
                    0.2127571006248678
                ]
            ]
        },
        {
            "inputs": [
                0,
                0,
                0,
                1,
                0,
                1
            ],
            "outputs": [
                1,
                0,
                1,
                0
            ],
            "biases": [
                -0.1899050729267193,
                0.10555633798559064,
                -0.05733192982514735,
                0.17800500482921192,
                0.11931135119213195,
                -0.09760757638436325
            ],
            "weights": [
                [
                    0.0547143663605484,
                    0.24244177128628192,
                    -0.29093888736164014,
                    0.12059058796931008,
                    0.1053420287356933,
                    -0.03011130744608126
                ],
                [
                    0.14048456393294886,
                    -0.033221154975379974,
                    -0.1537616929164764,
                    -0.17458967490536367,
                    0.09995176055036865,
                    0.04194812617584636
                ],
                [
                    0.06756105750064062,
                    0.05345933108044307,
                    -0.037297250591381545,
                    -0.1240052866810384,
                    0.06193900103403424,
                    0.31624862853198143
                ],
                [
                    -0.05161808451778147,
                    0.11734971381789071,
                    -0.06932374049237464,
                    0.0433753231767879,
                    -0.033593434720783674,
                    -0.09286817863603122
                ],
                [
                    -0.008364844652354542,
                    0.17268021922265508,
                    0.1616370794859423,
                    -0.13773498987842142,
                    0.3763357196012594,
                    -0.03861539191096269
                ],
                [
                    -0.1316930241312547,
                    -0.19251919205048,
                    0.11914672112275426,
                    0.09329329901509198,
                    0.015023179534879428,
                    -0.08180364886721675
                ]
            ]
        }
    ]
}
